       33.710810      -118.50389     -0.69703960
       33.709952      -118.50413     -0.69703960
       33.709094      -118.50437     -0.71722507
       33.708238      -118.50461     -0.70088005
       33.707381      -118.50485     -0.70905209
       33.706523      -118.50508     -0.70088005
       33.705666      -118.50532     -0.70088005
       33.704809      -118.50556     -0.71722507
       33.703951      -118.50580     -0.69270802
       33.703093      -118.50604     -0.69270802
       33.702235      -118.50628     -0.70088005
       33.701378      -118.50651     -0.70088005
       33.700521      -118.50675     -0.69178391
       33.699664      -118.50699     -0.69995594
       33.698807      -118.50723     -0.68361187
       33.697950      -118.50747     -0.68361187
       33.697092      -118.50771     -0.68361187
       33.696234      -118.50794     -0.68361187
       33.695377      -118.50818     -0.68361187
       33.694520      -118.50842     -0.68361187
       33.693663      -118.50866     -0.67543983
       33.692806      -118.50890     -0.67543983
       33.691948      -118.50913     -0.68361187
       33.691091      -118.50937     -0.67160034
       33.690233      -118.50961     -0.66342831
       33.689376      -118.50985     -0.67977238
       33.688518      -118.51008     -0.65525532
       33.687661      -118.51032     -0.66342831
       33.686803      -118.51056     -0.66342831
       33.685945      -118.51080     -0.66342831
       33.685088      -118.51104     -0.66342831
       33.684231      -118.51127     -0.66342831
       33.683374      -118.51151     -0.66342831
       33.682516      -118.51175     -0.65248013
       33.681659      -118.51199     -0.66065311
       33.680801      -118.51222     -0.65248013
       33.679944      -118.51246     -0.66065311
       33.679085      -118.51270     -0.66065311
       33.678228      -118.51294     -0.66882515
       33.677371      -118.51318     -0.65248013
       33.676513      -118.51341     -0.66882515
       33.675656      -118.51365     -0.64430809
       33.674798      -118.51389     -0.66065311
       33.673941      -118.51413     -0.66065311
       33.673084      -118.51436     -0.65464687
       33.672227      -118.51460     -0.64647388
       33.671369      -118.51484     -0.64647388
       33.670511      -118.51508     -0.65464687
       33.669655      -118.51532     -0.65001774
       33.668797      -118.51555     -0.64184475
       33.667939      -118.51579     -0.65818977
       33.667082      -118.51603     -0.64184475
       33.666224      -118.51627     -0.65001774
       33.665366      -118.51651     -0.62550068
       33.664509      -118.51674     -0.63830185
       33.663652      -118.51698     -0.64647388
       33.662794      -118.51722     -0.64647388
       33.661937      -118.51746     -0.64647388
       33.661079      -118.51769     -0.64647388
       33.660221      -118.51793     -0.64647388
       33.659364      -118.51817     -0.66281891
       33.658506      -118.51841     -0.66281891
       33.657649      -118.51864     -0.65464687
       33.656792      -118.51888     -0.66281891
       33.655935      -118.51912     -0.66281891
       33.655078      -118.51936     -0.67468739
       33.654221      -118.51960     -0.67468739
       33.653363      -118.51983     -0.69103146
       33.652506      -118.52007     -0.67468739
       33.651648      -118.52031     -0.65834332
       33.650791      -118.52055     -0.67468739
       33.649933      -118.52078     -0.67468739
       33.649076      -118.52102     -0.68285942
       33.648219      -118.52126     -0.68285942
       33.647362      -118.52150     -0.68285942
       33.646504      -118.52174     -0.67407036
       33.645647      -118.52197     -0.67407036
       33.644789      -118.52221     -0.67407036
       33.643932      -118.52245     -0.67407036
       33.643075      -118.52269     -0.68224239
       33.642217      -118.52292     -0.66589832
       33.641359      -118.52316     -0.67407036
       33.640502      -118.52340     -0.67407036
       33.639644      -118.52364     -0.68224239
       33.638786      -118.52387     -0.66589832
       33.637928      -118.52411     -0.66589832
       33.637071      -118.52435     -0.68285942
       33.636213      -118.52459     -0.66651535
       33.635356      -118.52483     -0.67468739
       33.634499      -118.52506     -0.65834332
       33.633641      -118.52530     -0.67468739
       33.632784      -118.52554     -0.66651535
       33.631926      -118.52578     -0.68285942
       33.631068      -118.52601     -0.66882515
       33.630211      -118.52625     -0.68516922
       33.629354      -118.52649     -0.68516922
       33.628496      -118.52673     -0.67962074
       33.627637      -118.52696     -0.67144871
       33.626780      -118.52720     -0.67144871
       33.625922      -118.52744     -0.68779278
       33.625064      -118.52768     -0.67144871
       33.624207      -118.52792     -0.69596577
       33.623349      -118.52815     -0.69596577
       33.622492      -118.52839     -0.67962074
       33.621634      -118.52863     -0.68779278
       33.620777      -118.52887     -0.67962074
       33.619919      -118.52910     -0.68779278
       33.619062      -118.52934     -0.69411755
       33.618203      -118.52958     -0.67777252
       33.617345      -118.52982     -0.69411755
       33.616488      -118.53005     -0.69411755
       33.615630      -118.53029     -0.68594456
       33.614772      -118.53053     -0.68594456
       33.613915      -118.53077     -0.67777252
       33.613058      -118.53100     -0.66960049
       33.612201      -118.53124     -0.68594456
       33.611343      -118.53148     -0.67777252
       33.610486      -118.53172     -0.67699718
       33.609628      -118.53196     -0.69334126
       33.608770      -118.53219     -0.69334126
       33.607912      -118.53243     -0.69334126
       33.607054      -118.53267     -0.69334126
       33.606197      -118.53291     -0.69334126
       33.605339      -118.53314     -0.69334126
       33.604482      -118.53338     -0.69334126
       33.603624      -118.53362     -0.70151424
       33.602766      -118.53386     -0.69334126
       33.601908      -118.53409     -0.70151424
       33.601050      -118.53433     -0.69643021
       33.600194      -118.53457     -0.68825722
       33.599337      -118.53481     -0.70460224
       33.598480      -118.53504     -0.68825722
       33.597621      -118.53528     -0.67191315
       33.596764      -118.53552     -0.68825722
       33.595907      -118.53576     -0.69643021
       33.595050      -118.53599     -0.69643021
       33.594192      -118.53623     -0.68825722
       33.593334      -118.53647     -0.68825722
       33.592477      -118.53671     -0.68810081
       33.591620      -118.53694     -0.67884254
       33.590762      -118.53718     -0.67066956
       33.589904      -118.53742     -0.68701458
       33.589046      -118.53766     -0.67066956
       33.588188      -118.53789     -0.69518661
       33.587331      -118.53813     -0.69518661
       33.586473      -118.53837     -0.67884254
       33.585616      -118.53861     -0.68701458
       33.584758      -118.53885     -0.67884254
       33.583900      -118.53908     -0.68701458
       33.583043      -118.53932     -0.67235565
       33.582185      -118.53956     -0.68052769
       33.581327      -118.53980     -0.68052769
       33.580469      -118.54003     -0.68869972
       33.579612      -118.54027     -0.68052769
       33.578754      -118.54051     -0.68052769
       33.577897      -118.54074     -0.68052769
       33.577040      -118.54098     -0.68869972
       33.576182      -118.54122     -0.68869972
       33.575324      -118.54146     -0.68052769
       33.574467      -118.54169     -0.65919018
       33.573608      -118.54193     -0.65919018
       33.572751      -118.54217     -0.66736221
       33.571893      -118.54241     -0.66736221
       33.571036      -118.54264     -0.66736221
       33.570178      -118.54288     -0.68370628
       33.569320      -118.54312     -0.66736221
       33.568463      -118.54336     -0.67553425
       33.567606      -118.54359     -0.68370628
       33.566748      -118.54383     -0.68370628
       33.565890      -118.54407     -0.66736221
       33.565033      -118.54430     -0.67394829
       33.564175      -118.54454     -0.68212128
       33.563317      -118.54478     -0.67394829
       33.562460      -118.54502     -0.67394829
       33.561602      -118.54525     -0.68212128
       33.560745      -118.54549     -0.68212128
       33.559887      -118.54573     -0.66577625
       33.559030      -118.54597     -0.67394829
       33.558173      -118.54620     -0.67394829
       33.557315      -118.54644     -0.68212128
       33.556457      -118.54668     -0.65373993
       33.555600      -118.54692     -0.65373993
       33.554742      -118.54715     -0.64556694
       33.553885      -118.54739     -0.65373993
       33.553027      -118.54763     -0.68617344
       33.552169      -118.54787     -0.66982937
       33.551311      -118.54810     -0.66982937
       33.550454      -118.54834     -0.66982937
       33.549596      -118.54858     -0.66165733
       33.548739      -118.54881     -0.66982937
       33.547882      -118.54905     -0.66982937
       33.547024      -118.54929     -0.65072727
       33.546167      -118.54953     -0.64255524
       33.545309      -118.54976     -0.64255524
       33.544451      -118.55000     -0.65072727
       33.543595      -118.55024     -0.65889931
       33.542737      -118.55047     -0.65072727
       33.541879      -118.55071     -0.64255524
       33.541022      -118.55095     -0.64255524
       33.540163      -118.55119     -0.64255524
       33.539306      -118.55142     -0.64255524
       33.538449      -118.55166     -0.65212536
       33.537591      -118.55190     -0.65212536
       33.536734      -118.55214     -0.66029739
       33.535876      -118.55237     -0.66029739
       33.535017      -118.55261     -0.66029739
       33.534160      -118.55285     -0.65212536
       33.533303      -118.55308     -0.64395332
       33.532445      -118.55332     -0.66029739
       33.531587      -118.55356     -0.65212536
       33.530729      -118.55380     -0.64395332
       33.529871      -118.55403     -0.65212536
       33.529013      -118.55427     -0.65585518
       33.528156      -118.55451     -0.64768314
       33.527298      -118.55475     -0.64768314
       33.526441      -118.55498     -0.65585518
       33.525583      -118.55522     -0.64768314
       33.524726      -118.55546     -0.63133812
       33.523868      -118.55569     -0.64768314
       33.523010      -118.55593     -0.64768314
       33.522153      -118.55617     -0.63951015
       33.521295      -118.55641     -0.64768314
       33.520438      -118.55664     -0.62318707
       33.519580      -118.55688     -0.63136005
       33.303452      -118.61657     -0.61192131
       33.302595      -118.61681     -0.60374928
       33.301737      -118.61704     -0.60374928
       33.300880      -118.61728     -0.60374928
       33.300022      -118.61752     -0.60374928
       33.299164      -118.61775     -0.60374928
       33.298306      -118.61799     -0.60374928
       33.297448      -118.61823     -0.59557724
       33.296591      -118.61846     -0.59557724
       33.295734      -118.61870     -0.60374928
       33.294876      -118.61893     -0.61009312
       33.294018      -118.61917     -0.61826515
       33.293160      -118.61941     -0.62643719
       33.292302      -118.61964     -0.62643719
       33.291444      -118.61988     -0.61009312
       33.290587      -118.62012     -0.61826515
       33.289729      -118.62035     -0.62643719
       33.288871      -118.62059     -0.62643719
       33.288013      -118.62082     -0.62643719
       33.287155      -118.62106     -0.61826515
       33.286297      -118.62129     -0.61826515
       33.285440      -118.62153     -0.61358261
       33.284583      -118.62177     -0.61358261
       33.283725      -118.62200     -0.62175465
       33.282867      -118.62224     -0.61358261
       33.282009      -118.62248     -0.61358261
       33.281151      -118.62271     -0.62175465
       33.280294      -118.62295     -0.61358261
       33.279437      -118.62318     -0.61358261
       33.278579      -118.62342     -0.60656166
       33.277722      -118.62366     -0.60656166
       33.276864      -118.62389     -0.60421848
       33.276006      -118.62413     -0.59604645
       33.275148      -118.62436     -0.61239052
       33.274291      -118.62460     -0.59604645
       33.273433      -118.62484     -0.60421848
       33.272575      -118.62507     -0.61239052
       33.271718      -118.62531     -0.60421848
       33.270860      -118.62554     -0.61239052
       33.270002      -118.62578     -0.60421848
       33.269145      -118.62602     -0.60421848
       33.268287      -118.62625     -0.60421848
       33.267430      -118.62649     -0.61051655
       33.266572      -118.62672     -0.60234451
       33.265714      -118.62696     -0.60234451
       33.264857      -118.62720     -0.60234451
       33.264000      -118.62743     -0.61051655
       33.263142      -118.62767     -0.60234451
       33.262284      -118.62790     -0.60234451
       33.261426      -118.62814     -0.60234451
       33.260568      -118.62838     -0.61051655
       33.259711      -118.62861     -0.60234451
       33.258853      -118.62885     -0.62060165
       33.257996      -118.62908     -0.62877369
       33.257138      -118.62932     -0.62877369
       33.256280      -118.62956     -0.62060165
       33.255423      -118.62979     -0.62060165
       33.254565      -118.63003     -0.61242962
       33.253707      -118.63026     -0.62060165
       33.252849      -118.63050     -0.62877369
       33.251992      -118.63074     -0.62877369
       33.251134      -118.63097     -0.63694572
       33.250276      -118.63121     -0.62060165
       33.249419      -118.63144     -0.61988163
       33.248561      -118.63168     -0.61170959
       33.247704      -118.63192     -0.61170959
       33.246846      -118.63215     -0.61170959
       33.245989      -118.63239     -0.61988163
       33.245131      -118.63262     -0.61170959
       33.244273      -118.63286     -0.61170959
       33.243415      -118.63310     -0.61988163
       33.242557      -118.63333     -0.61170959
       33.241699      -118.63357     -0.60353756
       33.240841      -118.63381     -0.60468388
       33.239983      -118.63404     -0.59651184
       33.239126      -118.63428     -0.62668228
       33.238268      -118.63451     -0.63485432
       33.237409      -118.63475     -0.62668228
       33.236552      -118.63498     -0.63485432
       33.235695      -118.63522     -0.63485432
       33.234837      -118.63546     -0.63485432
       33.233980      -118.63569     -0.64302635
       33.233122      -118.63593     -0.63485432
       33.232264      -118.63616     -0.62668228
       33.231406      -118.63640     -0.61285591
       33.230548      -118.63664     -0.61285591
       33.229691      -118.63687     -0.60468388
       33.228834      -118.63711     -0.62102795
       33.227977      -118.63735     -0.60468388
       33.227119      -118.63758     -0.60468388
       33.226260      -118.63782     -0.61285591
       33.225402      -118.63805     -0.61285591
       33.224545      -118.63829     -0.60468388
       33.223688      -118.63853     -0.60468388
       33.222831      -118.63876     -0.62971020
       33.221972      -118.63900     -0.62971020
       33.221115      -118.63923     -0.62971020
       33.220258      -118.63947     -0.62153816
       33.219401      -118.63970     -0.62153816
       33.218543      -118.63994     -0.62153816
       33.217685      -118.64018     -0.61336613
       33.216828      -118.64041     -0.61336613
       33.215970      -118.64065     -0.62971020
       33.215112      -118.64088     -0.62153816
       33.214255      -118.64112     -0.61336613
       33.213397      -118.64136     -0.58339024
       33.212540      -118.64159     -0.59156227
       33.211683      -118.64183     -0.59156227
       33.210826      -118.64207     -0.59973431
       33.209968      -118.64230     -0.59156227
       33.209110      -118.64254     -0.59156227
       33.208252      -118.64277     -0.58339024
       33.207394      -118.64301     -0.59156227
       33.206538      -118.64324     -0.59156227
       33.205681      -118.64348     -0.58339024
       33.204823      -118.64372     -0.59136105
       33.203965      -118.64395     -0.59136105
       33.203107      -118.64419     -0.58318901
       33.202250      -118.64443     -0.59136105
       33.201392      -118.64466     -0.58318901
       33.200534      -118.64490     -0.59136105
       33.199677      -118.64513     -0.61242962
       33.198820      -118.64537     -0.61242962
       33.197962      -118.64561     -0.61242962
       33.197104      -118.64584     -0.59608459
       33.196246      -118.64608     -0.60425758
       33.195388      -118.64631     -0.60238838
       33.194531      -118.64655     -0.61056042
       33.193673      -118.64678     -0.61873245
       33.192815      -118.64702     -0.58604336
       33.191958      -118.64726     -0.60238838
       33.191101      -118.64749     -0.60238838
       33.190242      -118.64773     -0.59421539
       33.189384      -118.64796     -0.60238838
       33.188526      -118.64820     -0.58604336
       33.187669      -118.64844     -0.60238838
       33.186811      -118.64867     -0.60472679
       33.185954      -118.64891     -0.60472679
       33.185097      -118.64914     -0.59655380
       33.184239      -118.64938     -0.59655380
       33.183381      -118.64962     -0.59655380
       33.182522      -118.64985     -0.59655380
       33.181664      -118.65009     -0.60472679
       33.180807      -118.65032     -0.58838177
       33.179950      -118.65056     -0.58838177
       33.179092      -118.65080     -0.59655380
       33.178235      -118.65103     -0.59655380
       33.177377      -118.65127     -0.58463764
       33.176520      -118.65150     -0.59280968
       33.175662      -118.65174     -0.59280968
       33.174803      -118.65198     -0.60098267
       33.173946      -118.65221     -0.60098267
       33.173089      -118.65245     -0.59280968
       33.172231      -118.65268     -0.58463764
       33.171373      -118.65292     -0.60098267
       33.170516      -118.65315     -0.60098267
       33.169658      -118.65339     -0.59280968
       33.168800      -118.65363     -0.59000301
       33.167943      -118.65386     -0.58183098
       33.167085      -118.65410     -0.59000301
       33.166228      -118.65434     -0.59000301
       33.165371      -118.65457     -0.59000301
       33.164514      -118.65481     -0.58183098
       33.163657      -118.65504     -0.59817600
       33.162800      -118.65528     -0.59817600
       33.161942      -118.65552     -0.58183098
       33.161084      -118.65575     -0.59000301
       33.160226      -118.65599     -0.59165668
       33.159369      -118.65622     -0.60192108
       33.158512      -118.65646     -0.59374809
       33.157655      -118.65670     -0.60192108
       33.156798      -118.65693     -0.61009312
       33.155941      -118.65717     -0.59374809
       33.155083      -118.65740     -0.59374809
       33.154226      -118.65764     -0.60192108
       33.153369      -118.65787     -0.59374809
       33.152511      -118.65811     -0.59374809
       33.151654      -118.65835     -0.59374809
       33.150796      -118.65858     -0.58974838
       33.149939      -118.65882     -0.58157539
       33.149081      -118.65906     -0.58974838
       33.148223      -118.65929     -0.59792042
       33.147366      -118.65953     -0.58974838
       33.146508      -118.65976     -0.59792042
       33.145650      -118.66000     -0.58974838
       33.144792      -118.66024     -0.59792042
       33.143935      -118.66047     -0.58974838
       33.143078      -118.66071     -0.59792042
       33.142221      -118.66094     -0.59792042
       33.141362      -118.66118     -0.59344006
       33.140505      -118.66142     -0.58526802
       33.139648      -118.66165     -0.58526802
       33.138790      -118.66189     -0.58526802
       33.137932      -118.66212     -0.58526802
       33.137074      -118.66236     -0.57709599
       33.136217      -118.66260     -0.56892300
       33.135359      -118.66283     -0.57709599
       33.134502      -118.66307     -0.57709599
       33.133644      -118.66330     -0.57709599
       32.874624      -118.73436     -0.58344650
       32.873766      -118.73460     -0.56710243
       32.872909      -118.73483     -0.56710243
       32.872051      -118.73506     -0.57527447
       32.871193      -118.73530     -0.59118843
       32.870335      -118.73553     -0.59118843
       32.869478      -118.73577     -0.59118843
       32.868620      -118.73600     -0.59118843
       32.867762      -118.73624     -0.59118843
       32.866905      -118.73647     -0.59936047
       32.866047      -118.73671     -0.59118843
       32.865189      -118.73694     -0.59936047
       32.864331      -118.73718     -0.58301640
       32.863472      -118.73741     -0.58301640
       32.862614      -118.73765     -0.58301640
       32.861757      -118.73788     -0.58114338
       32.860898      -118.73812     -0.58931541
       32.860040      -118.73835     -0.58931541
       32.859183      -118.73859     -0.58931541
       32.858326      -118.73882     -0.58114338
       32.857468      -118.73906     -0.59748745
       32.856611      -118.73929     -0.58114338
       32.855753      -118.73953     -0.59748745
       32.854896      -118.73976     -0.58114338
       32.854038      -118.73999     -0.58114338
       32.853181      -118.74023     -0.59352398
       32.852323      -118.74046     -0.59352398
       32.851465      -118.74070     -0.58535194
       32.850607      -118.74093     -0.60169601
       32.849749      -118.74117     -0.59352398
       32.848891      -118.74140     -0.58535194
       32.848033      -118.74164     -0.60169601
       32.847176      -118.74187     -0.60169601
       32.846318      -118.74211     -0.60169601
       32.845460      -118.74234     -0.60169601
       32.844602      -118.74257     -0.58488369
       32.843745      -118.74281     -0.60287380
       32.842888      -118.74304     -0.60287380
       32.842030      -118.74328     -0.61104584
       32.841172      -118.74351     -0.59470177
       32.840314      -118.74375     -0.59470177
       32.839456      -118.74398     -0.59470177
       32.838598      -118.74422     -0.59470177
       32.837740      -118.74445     -0.58652973
       32.836883      -118.74469     -0.59470177
       32.836026      -118.74492     -0.58652973
       32.835168      -118.74516     -0.59890366
       32.834310      -118.74539     -0.60707569
       32.833452      -118.74562     -0.59890366
       32.832594      -118.74586     -0.61524773
       32.831737      -118.74609     -0.59890366
       32.830879      -118.74633     -0.60707569
       32.830021      -118.74656     -0.59890366
       32.829164      -118.74680     -0.60707569
       32.828305      -118.74703     -0.59890366
       32.827447      -118.74727     -0.60707569
       32.826590      -118.74750     -0.59890366
       32.825733      -118.74773     -0.59446144
       32.824875      -118.74797     -0.58628941
       32.824017      -118.74820     -0.58628941
       32.823159      -118.74844     -0.59446144
       32.822301      -118.74867     -0.58628941
       32.821442      -118.74891     -0.58628941
       32.820584      -118.74914     -0.59446144
       32.819727      -118.74938     -0.59446144
       32.818869      -118.74961     -0.57811737
       32.818011      -118.74984     -0.57811737
       32.817154      -118.75008     -0.59049511
       32.816296      -118.75031     -0.59866714
       32.815438      -118.75055     -0.59866714
       32.814580      -118.75078     -0.58232307
       32.813722      -118.75102     -0.59049511
       32.812864      -118.75125     -0.59049511
       32.812006      -118.75148     -0.59049511
       32.811148      -118.75172     -0.58232307
       32.810291      -118.75195     -0.58232307
       32.809433      -118.75219     -0.59866714
       32.808575      -118.75242     -0.58232307
       32.807717      -118.75266     -0.60684299
       32.806859      -118.75289     -0.60684299
       32.806001      -118.75313     -0.59867096
       32.805143      -118.75336     -0.58979988
       32.804285      -118.75359     -0.60614395
       32.803428      -118.75383     -0.58979988
       32.802570      -118.75406     -0.58979988
       32.801713      -118.75430     -0.58979988
       32.800856      -118.75453     -0.59797192
       32.799998      -118.75477     -0.58162785
       32.799139      -118.75500     -0.60006905
       32.798282      -118.75523     -0.60006905
       32.797424      -118.75547     -0.59189701
       32.796566      -118.75570     -0.60824108
       32.795709      -118.75594     -0.60006905
       32.794851      -118.75617     -0.59189701
       32.793993      -118.75641     -0.59189701
       32.793135      -118.75664     -0.59189701
       32.792278      -118.75688     -0.59189701
       32.791421      -118.75711     -0.60006905
       32.790563      -118.75734     -0.59189701
       32.789705      -118.75758     -0.59166527
       32.788847      -118.75781     -0.57532024
       32.787990      -118.75805     -0.58349323
       32.787132      -118.75828     -0.58349323
       32.786274      -118.75852     -0.58349323
       32.785417      -118.75875     -0.59166527
       32.784559      -118.75898     -0.59166527
       32.783702      -118.75922     -0.59166527
       32.782844      -118.75945     -0.58349323
       32.781986      -118.75969     -0.59166527
       32.781129      -118.75992     -0.59960270
       32.780272      -118.76016     -0.59143066
       32.779414      -118.76039     -0.59143066
       32.778556      -118.76062     -0.58325768
       32.777698      -118.76086     -0.59143066
       32.776840      -118.76109     -0.59143066
       32.775983      -118.76133     -0.59143066
       32.775126      -118.76156     -0.58325768
       32.774268      -118.76180     -0.59143066
       32.773410      -118.76203     -0.59143066
       32.772553      -118.76227     -0.59143066
       32.771695      -118.76250     -0.57368660
       32.770838      -118.76273     -0.57368660
       32.769980      -118.76297     -0.56551456
       32.769122      -118.76320     -0.57368660
       32.768264      -118.76344     -0.57368660
       32.767406      -118.76367     -0.57368660
       32.766549      -118.76390     -0.57368660
       32.765692      -118.76414     -0.55524063
       32.764834      -118.76437     -0.55524063
       32.763977      -118.76461     -0.55524063
       32.763120      -118.76484     -0.55453205
       32.762261      -118.76508     -0.55453205
       32.761402      -118.76531     -0.55453205
       32.760544      -118.76554     -0.55453205
       32.759687      -118.76578     -0.54636002
       32.758829      -118.76601     -0.54636002
       32.757972      -118.76625     -0.54636002
       32.757114      -118.76648     -0.55453205
       32.756256      -118.76672     -0.56270409
       32.755399      -118.76695     -0.54636002
       32.754541      -118.76719     -0.55453205
       32.753683      -118.76742     -0.56691360
       32.752825      -118.76765     -0.55874157
       32.751968      -118.76789     -0.55874157
       32.751110      -118.76812     -0.55874157
       32.750252      -118.76836     -0.57508659
       32.749394      -118.76859     -0.55874157
       32.748537      -118.76883     -0.57508659
       32.747679      -118.76906     -0.56691360
       32.746821      -118.76929     -0.57508659
       32.745963      -118.76953     -0.58325863
       32.745106      -118.76976     -0.57508659
       32.744249      -118.77000     -0.58325863
       32.743391      -118.77023     -0.58325863
       32.742532      -118.77047     -0.57508659
       32.741674      -118.77070     -0.57508659
       32.740817      -118.77094     -0.59143066
       32.739960      -118.77117     -0.59143066
       32.739102      -118.77140     -0.58325863
       32.738244      -118.77164     -0.58325863
       32.737387      -118.77187     -0.57508659
       32.736529      -118.77211     -0.58325863
       32.735672      -118.77234     -0.57156849
       32.734814      -118.77258     -0.57156849
       32.733957      -118.77281     -0.57974052
       32.733098      -118.77305     -0.57156849
       32.732241      -118.77328     -0.57156849
       32.731383      -118.77352     -0.58791256
       32.730526      -118.77375     -0.58791256
       32.729669      -118.77398     -0.57974052
       32.728811      -118.77422     -0.57974052
       32.727953      -118.77445     -0.57974052
       32.727096      -118.77469     -0.56897736
       32.726238      -118.77492     -0.57693386
       32.725380      -118.77516     -0.58510590
       32.724522      -118.77539     -0.57693386
       32.723664      -118.77562     -0.59327793
       32.722807      -118.77586     -0.58510590
       32.721949      -118.77609     -0.56876183
       32.721091      -118.77633     -0.57693386
       32.720233      -118.77656     -0.56876183
       32.719376      -118.77680     -0.58510590
       32.718518      -118.77703     -0.56876183
       32.717660      -118.77727     -0.57506275
       32.716802      -118.77750     -0.57506275
       32.715945      -118.77773     -0.58323479
       32.715088      -118.77797     -0.57506275
       32.714229      -118.77820     -0.57506275
       32.713372      -118.77844     -0.57506275
       32.712515      -118.77867     -0.57506275
       32.711657      -118.77891     -0.58323479
       32.710799      -118.77914     -0.57506275
       32.709940      -118.77937     -0.58323479
       32.709082      -118.77961     -0.58510590
       32.708225      -118.77984     -0.56876183
       32.707367      -118.78008     -0.57693386
       32.706510      -118.78031     -0.57693386
       32.705652      -118.78055     -0.57693386
       32.704794      -118.78078     -0.57693386
       32.703936      -118.78101     -0.57693386
       32.703078      -118.78125     -0.57693386
       32.702220      -118.78148     -0.56876183
       32.701362      -118.78172     -0.57693386
       32.700504      -118.78195     -0.56058979
       32.699647      -118.78219     -0.58582115
       32.698789      -118.78242     -0.58582115
       32.697931      -118.78265     -0.57764912
       32.697073      -118.78289     -0.58582115
       32.696215      -118.78312     -0.58582115
       32.695357      -118.78336     -0.58582115
       32.694500      -118.78359     -0.58582115
       32.693642      -118.78383     -0.57764912
       32.692784      -118.78406     -0.57764912
       32.691926      -118.78430     -0.57764912
       32.691069      -118.78453     -0.56642246
       32.690211      -118.78476     -0.57459450
       32.689353      -118.78500     -0.56642246
       32.688495      -118.78523     -0.56642246
       32.687637      -118.78547     -0.56642246
       32.686779      -118.78570     -0.57156849
       32.685921      -118.78593     -0.57156849
       32.685064      -118.78617     -0.57974052
       32.684207      -118.78640     -0.57156849
       32.683350      -118.78664     -0.57156849
       32.682492      -118.78687     -0.57974052
       32.681633      -118.78710     -0.56292725
       32.680775      -118.78734     -0.56292725
       32.679917      -118.78757     -0.57109928
       32.679059      -118.78781     -0.56292725
       32.678202      -118.78804     -0.57109928
       32.677344      -118.78828     -0.57109928
       32.676487      -118.78851     -0.56292725
       32.675629      -118.78874     -0.58744335
       32.674771      -118.78898     -0.57927132
       32.673914      -118.78921     -0.57109928
       32.673056      -118.78945     -0.58675671
       32.672198      -118.78968     -0.57858467
       32.671340      -118.78991     -0.57041264
       32.670483      -118.79015     -0.58675671
       32.669624      -118.79038     -0.57858467
       32.668767      -118.79062     -0.57858467
       32.667910      -118.79085     -0.59492874
       32.667051      -118.79108     -0.57858467
       32.666193      -118.79132     -0.57858467
       32.665335      -118.79155     -0.58675671
       32.664478      -118.79179     -0.57858467
       32.663620      -118.79202     -0.58792973
       32.662762      -118.79225     -0.59610176
       32.661904      -118.79249     -0.58792973
