       33.707381      -118.50485     -0.70905209       0
       33.692806      -118.50890     -0.67543983       1
       33.670511      -118.51508     -0.65464687       2
       33.648219      -118.52126     -0.68285942       3
       33.626780      -118.52720     -0.67144871       4
       33.604482      -118.53338     -0.69334126       5
       33.582185      -118.53956     -0.68052769       6
       33.559887      -118.54573     -0.66577625       7
       33.538449      -118.55166     -0.65212536       8
       33.523010      -118.55593     -0.64768314       9
       33.294018      -118.61917     -0.61826515      10
       33.282867      -118.62224     -0.61358261      11
       33.271718      -118.62531     -0.60421848      12
       33.251134      -118.63097     -0.63694572      13
       33.228834      -118.63711     -0.62102795      14
       33.206538      -118.64324     -0.59156227      15
       33.184239      -118.64938     -0.59655380      16
       33.162800      -118.65528     -0.59817600      17
       33.142221      -118.66094     -0.59792042      18
       32.869478      -118.73577     -0.59118843      19
       32.853181      -118.74023     -0.59352398      20
       32.830879      -118.74633     -0.60707569      21
       32.809433      -118.75219     -0.59866714      22
       32.787132      -118.75828     -0.58349323      23
       32.764834      -118.76437     -0.55524063      24
       32.742532      -118.77047     -0.57508659      25
       32.720233      -118.77656     -0.56876183      26
       32.698789      -118.78242     -0.58582115      27
       32.676487      -118.78851     -0.56292725      28
       32.664478      -118.79179     -0.57858467      29
       32.662762      -118.79225     -0.59610176      30
